[[ 0.00000000e+00  0.00000000e+00  0.00000000e+00  0.00000000e+00
   0.00000000e+00  0.00000000e+00  0.00000000e+00  0.00000000e+00
   0.00000000e+00  0.00000000e+00  0.00000000e+00  0.00000000e+00
   0.00000000e+00  0.00000000e+00  0.00000000e+00  0.00000000e+00
   0.00000000e+00  0.00000000e+00  0.00000000e+00  0.00000000e+00
   0.00000000e+00  0.00000000e+00  0.00000000e+00  0.00000000e+00
   0.00000000e+00  0.00000000e+00  0.00000000e+00  0.00000000e+00
   0.00000000e+00  0.00000000e+00  0.00000000e+00  0.00000000e+00
   0.00000000e+00  0.00000000e+00  0.00000000e+00  0.00000000e+00
   0.00000000e+00  0.00000000e+00  0.00000000e+00 -1.99216139e-03
  -3.93763149e-03 -1.61863113e-03  0.00000000e+00  0.00000000e+00
   0.00000000e+00  0.00000000e+00  0.00000000e+00  0.00000000e+00
   0.00000000e+00  0.00000000e+00  0.00000000e+00  0.00000000e+00
   0.00000000e+00  0.00000000e+00  0.00000000e+00  0.00000000e+00
   0.00000000e+00  0.00000000e+00  0.00000000e+00  0.00000000e+00
   0.00000000e+00  0.00000000e+00  0.00000000e+00  0.00000000e+00
   0.00000000e+00  0.00000000e+00  0.00000000e+00 -1.43186600e-03
  -3.59522876e-03 -1.52524856e-03 -1.77280959e-24 -3.16889714e-24
  -1.10800599e-25  0.00000000e+00  0.00000000e+00  0.00000000e+00
   0.00000000e+00  0.00000000e+00  0.00000000e+00  0.00000000e+00
   0.00000000e+00  0.00000000e+00  0.00000000e+00  0.00000000e+00
   0.00000000e+00  0.00000000e+00  0.00000000e+00  0.00000000e+00
   0.00000000e+00  0.00000000e+00  0.00000000e+00  0.00000000e+00
  -8.29807525e-24 -4.10190882e-24 -3.84757852e-03 -5.57424912e-03
  -8.09124876e-03 -1.09424597e-02 -8.45929668e-03  1.48463111e-02
   2.02592104e-02 -1.42415575e-03 -2.13686883e-03 -6.27728561e-04
   1.97976940e-04  6.09589307e-03  6.67179738e-04  9.10078054e-24
   0.00000000e+00  0.00000000e+00  0.00000000e+00  0.00000000e+00
   0.00000000e+00  0.00000000e+00  0.00000000e+00  0.00000000e+00
   0.00000000e+00  0.00000000e+00  0.00000000e+00  0.00000000e+00
  -9.70648402e-25 -6.35572034e-24 -3.05964189e-03 -2.51274852e-03
  -3.32217260e-03 -7.56753407e-03 -1.99080330e-02  1.29572343e-02
   1.37755979e-02 -7.57923626e-03 -2.60597675e-02  3.75185412e-03
   2.26956509e-02  1.54516467e-02  4.46996708e-03  1.14149070e-23
   0.00000000e+00  0.00000000e+00  0.00000000e+00  0.00000000e+00
   0.00000000e+00  0.00000000e+00  0.00000000e+00  0.00000000e+00
   1.58794792e-23  1.81952365e-24 -8.33468659e-04 -2.05089479e-03
  -2.37866336e-03 -2.61854516e-03 -3.95270952e-03  4.13926055e-04
   6.90363096e-03 -1.19303878e-02 -9.23841387e-03  1.50989676e-02
   1.35516263e-02 -1.45729248e-03 -8.60214694e-03  3.56584964e-03
   2.96904229e-02  2.06351477e-02  6.24634711e-03  1.72984616e-24
  -1.36983044e-25  0.00000000e+00  0.00000000e+00  0.00000000e+00
   0.00000000e+00  0.00000000e+00  0.00000000e+00  0.00000000e+00
   1.82903969e-24 -1.60138360e-03 -2.97761452e-03 -3.93441523e-03
  -2.46965726e-03 -2.94452530e-03 -1.02732282e-02 -6.58162416e-03
   4.80207683e-03 -4.58548470e-03 -1.33892692e-02  3.20246017e-03
   5.49345334e-03 -7.97609868e-03 -1.44944653e-02 -1.68655920e-03
   2.23894383e-02  9.20813441e-03 -1.42937217e-03 -7.85124924e-24
  -2.47824724e-24  0.00000000e+00  0.00000000e+00  0.00000000e+00
   0.00000000e+00  0.00000000e+00  0.00000000e+00  0.00000000e+00
   2.02162890e-25 -2.48735202e-03 -6.60815624e-03 -7.31892481e-03
  -2.95186862e-03 -7.97738314e-03 -1.53878433e-02 -4.59448906e-03
  -5.74978729e-03 -1.43098364e-02 -1.21143373e-02 -6.17759997e-03
  -7.10942627e-03 -1.40148816e-02 -2.53878467e-02 -1.24401889e-02
  -5.30580536e-04 -1.50869328e-02 -1.75310638e-02 -2.39809595e-03
  -3.27638324e-04 -6.38509471e-25  0.00000000e+00  0.00000000e+00
   0.00000000e+00  0.00000000e+00  0.00000000e+00  0.00000000e+00
   0.00000000e+00 -3.33478304e-03 -7.85692560e-03 -6.20431845e-03
  -3.00553662e-03 -1.47293688e-02 -1.61245887e-02 -1.34130215e-02
  -1.88286183e-02 -5.56394513e-03 -1.19154763e-02 -2.32527925e-02
  -7.40023056e-03 -9.37052607e-03 -2.05125149e-02 -3.96627197e-02
  -3.65838853e-02 -1.76288256e-02 -1.91224947e-02 -1.07840938e-02
  -1.13779854e-03 -5.64835301e-24  0.00000000e+00  0.00000000e+00
   0.00000000e+00  0.00000000e+00  0.00000000e+00  0.00000000e+00
   3.23296787e-25 -1.48054940e-03 -6.19521349e-03 -6.58189505e-03
  -5.96851748e-03 -2.32529925e-02 -1.84004117e-02 -2.66899156e-02
  -1.15839131e-02 -4.11637971e-03 -2.30160124e-02 -1.07820732e-02
   3.20769040e-03  6.91204162e-03 -1.63088506e-02 -5.21410866e-02
  -4.02737701e-02 -1.68626025e-02 -1.76309832e-02 -1.89700730e-02
  -7.38675494e-04 -2.45580566e-25  0.00000000e+00  0.00000000e+00
   0.00000000e+00  0.00000000e+00  0.00000000e+00  0.00000000e+00
   2.70953497e-24 -1.02167339e-03 -6.03570851e-03 -6.26045457e-03
  -1.34216421e-02 -2.94970650e-02 -2.20572226e-02 -2.12819635e-02
  -1.27411417e-02 -2.41433654e-03  1.30772357e-02  2.72803511e-02
   2.56466190e-02  9.12760112e-03 -2.10041523e-02 -5.00012894e-02
  -4.44014273e-02 -2.38356496e-02 -2.71944733e-02 -2.11703708e-02
  -9.53129669e-05 -2.45580566e-25  0.00000000e+00  0.00000000e+00
   0.00000000e+00  0.00000000e+00  0.00000000e+00  0.00000000e+00
   3.61800332e-24 -3.14539453e-03 -4.98755699e-03 -4.82241824e-03
  -1.38228142e-02 -1.80425504e-02 -7.61886268e-03 -1.64224052e-02
  -2.63103524e-02  4.24377028e-03  3.61134435e-02  4.85874217e-02
   4.36313465e-02  7.86874732e-03 -3.81704638e-02 -4.79696655e-02
  -4.34273876e-02 -3.19438310e-02 -3.65914652e-02 -2.41612358e-02
  -2.17377318e-05 -9.82322263e-26  0.00000000e+00  0.00000000e+00
   0.00000000e+00  0.00000000e+00  0.00000000e+00  0.00000000e+00
  -8.07765226e-05 -3.79916991e-03 -5.78737911e-03  3.87769029e-03
  -4.01672738e-03 -1.31090264e-02 -1.05596721e-02 -3.73903907e-02
  -3.09166841e-02  2.35147531e-02  5.08744735e-02  7.10073805e-02
   5.79330093e-02  4.82677597e-03 -4.52612309e-02 -4.07329770e-02
  -3.21662227e-02 -4.18990672e-02 -4.18575600e-02 -2.26646356e-02
  -2.68823102e-03 -2.07884308e-25  0.00000000e+00  0.00000000e+00
   0.00000000e+00  0.00000000e+00  0.00000000e+00  0.00000000e+00
  -3.05971677e-04 -5.90592041e-03 -1.40769656e-02 -2.37237864e-02
  -2.93620749e-02 -2.95907078e-02 -3.35971208e-02 -4.97272783e-02
  -1.23580512e-02  3.74201677e-02  7.33550414e-02  7.99750912e-02
   4.82695429e-02  1.80387489e-06 -4.33829934e-02 -3.50480127e-02
  -3.40068431e-02 -4.13139571e-02 -3.95854827e-02 -1.71808629e-02
  -5.51390431e-03 -8.26968722e-25  0.00000000e+00  0.00000000e+00
   0.00000000e+00  0.00000000e+00  0.00000000e+00  0.00000000e+00
  -5.44617480e-04 -1.08569562e-02 -3.01884634e-02 -3.97821934e-02
  -3.16375120e-02 -2.14275351e-02 -4.47719083e-02 -4.16964019e-02
   4.61634351e-03  5.18219614e-02  7.59607915e-02  6.56671052e-02
   3.79228155e-02  4.25483573e-03 -4.58600858e-02 -4.30281377e-02
  -3.96565517e-02 -3.40158525e-02 -2.86227933e-02 -2.01309116e-02
  -5.51390431e-03 -8.13606322e-25  0.00000000e+00  0.00000000e+00
   0.00000000e+00  0.00000000e+00  0.00000000e+00  0.00000000e+00
  -2.58266893e-03 -2.47745111e-02 -3.51536270e-02 -3.46556552e-02
  -2.48660912e-02 -2.97128285e-02 -5.12004571e-02 -2.34137798e-02
   2.66319478e-02  5.56863840e-02  6.62008033e-02  5.05122541e-02
   3.01470044e-02 -1.98327479e-02 -6.09851678e-02 -4.73599687e-02
  -3.46772981e-02 -1.81188896e-02 -2.25447966e-02 -1.99135919e-02
  -5.51390431e-03 -4.15768616e-25  0.00000000e+00  0.00000000e+00
   0.00000000e+00  0.00000000e+00  0.00000000e+00  0.00000000e+00
  -8.28498179e-03 -3.10832431e-02 -3.25746230e-02 -2.62299035e-02
  -2.25949389e-02 -4.02055737e-02 -3.68582651e-02 -5.30356326e-03
   3.33897678e-02  4.60840539e-02  5.38940502e-02  3.85055817e-02
   8.94556489e-03 -3.80760084e-02 -4.94423949e-02 -4.06909787e-02
  -1.87982049e-02 -1.53211379e-02 -2.24022663e-02 -1.71688155e-02
  -5.73298422e-03 -4.15768616e-25  0.00000000e+00  0.00000000e+00
   0.00000000e+00  0.00000000e+00  0.00000000e+00 -2.10722947e-25
  -1.98524843e-02 -2.98508289e-02 -1.88076730e-02 -2.40816569e-02
  -2.46918988e-02 -3.90171194e-02 -2.35481067e-02  1.05649638e-02
   3.17379877e-02  2.37107695e-02  2.33935221e-02  2.06318956e-02
  -7.39875651e-03 -3.69235932e-02 -3.17525497e-02 -3.42406435e-02
  -2.36769546e-02 -2.22912587e-02 -1.92765211e-02 -1.39997003e-02
  -5.13386947e-03 -1.66307446e-25  0.00000000e+00  0.00000000e+00
   0.00000000e+00  0.00000000e+00  0.00000000e+00 -3.09499329e-25
  -2.53391128e-02 -2.38273806e-02 -1.07952644e-02 -2.01196820e-02
  -3.66462864e-02 -3.95452237e-02 -1.98010035e-02  1.14187720e-02
   4.04405721e-03  1.00506623e-02  1.33851214e-02 -8.78425518e-04
  -5.48186192e-03 -1.85681619e-02 -3.10955019e-02 -3.67119395e-02
  -1.04655099e-02 -1.27610399e-02 -1.49557655e-02 -8.29479447e-03
  -3.86210708e-03  0.00000000e+00  0.00000000e+00  0.00000000e+00
   0.00000000e+00  0.00000000e+00  0.00000000e+00 -7.17775039e-25
  -2.29414743e-02 -2.91467528e-02 -2.02378287e-02 -2.73584802e-02
  -4.98466902e-02 -4.27288296e-02 -6.99714848e-03  1.23106199e-02
   1.42407519e-02  2.53285912e-02  3.04300115e-02  1.57040487e-02
   5.30274795e-03  1.16786649e-02 -1.08043967e-02 -1.84557805e-02
   3.90050183e-03 -9.39181247e-04 -9.29199129e-03 -2.41717108e-03
  -2.36929855e-03  0.00000000e+00  0.00000000e+00  0.00000000e+00
   0.00000000e+00  0.00000000e+00  0.00000000e+00 -9.54838354e-25
  -8.05037640e-03 -1.90099364e-02 -1.32352923e-02 -8.07715717e-03
  -2.04117041e-02 -3.41723637e-02 -1.00334227e-02  1.19488294e-02
   2.94437237e-02  3.47196365e-02  2.25371443e-02  1.34579636e-03
   2.56398139e-03 -7.43499219e-03 -2.70915481e-02 -1.43945814e-02
   6.15372709e-04 -7.26172832e-04 -2.13128169e-03 -2.35056891e-03
  -2.36929855e-03  0.00000000e+00  0.00000000e+00  0.00000000e+00
   0.00000000e+00  0.00000000e+00  0.00000000e+00  0.00000000e+00
  -3.18292458e-03  4.44793253e-03  1.82569362e-02  1.98094879e-02
   9.93135155e-03 -1.41072360e-02 -3.28319482e-03 -1.26812219e-02
  -1.44122404e-02 -9.27813393e-03 -1.06646677e-02 -1.03322934e-02
  -3.54303202e-03 -3.01602878e-02 -2.83973195e-02 -1.07025667e-02
  -3.78636507e-03 -2.92780484e-03 -2.48030965e-03 -2.37866336e-03
  -2.24755593e-03  1.18881652e-24  0.00000000e+00  0.00000000e+00
   0.00000000e+00  0.00000000e+00  0.00000000e+00  0.00000000e+00
  -6.96252478e-04  5.49114859e-03  1.54570237e-02  2.89275867e-02
   1.48582558e-02 -5.69676112e-03 -2.86607844e-02 -3.67110167e-02
  -4.27735475e-02 -3.08314848e-02 -1.65308993e-02 -1.34400954e-02
  -1.71266795e-02 -1.79640785e-02 -1.15826519e-03 -4.25266369e-03
  -4.17653100e-03 -3.10633735e-03 -2.36929855e-03 -2.36929855e-03
  -1.11441315e-03  7.80160841e-25 -8.78330407e-26  0.00000000e+00
   0.00000000e+00  0.00000000e+00  0.00000000e+00  0.00000000e+00
  -6.62596813e-05  9.30345892e-04  4.26898454e-03  7.07399051e-03
   2.13125585e-02  1.58591318e-03 -5.40637113e-03 -2.37037780e-02
  -2.44707419e-02 -8.04298954e-03 -2.90887379e-03 -9.76379806e-03
   2.68694321e-03  1.08950525e-02  1.11854384e-03 -3.38422742e-03
  -2.63054803e-03 -2.37866336e-03 -2.22882630e-03 -1.25488540e-03
  -1.87296328e-05  0.00000000e+00 -4.87961337e-25  0.00000000e+00
   0.00000000e+00  0.00000000e+00  0.00000000e+00  0.00000000e+00
   6.11097139e-26  3.15826777e-25  1.51094176e-23  3.31672111e-23
  -8.12217780e-04 -6.72180231e-03 -6.44172722e-03 -4.40367615e-03
  -4.77336882e-03  1.29170845e-03  2.71839037e-03 -1.70362734e-03
   6.53460890e-03 -1.73994704e-03 -1.82715575e-03 -1.45253385e-03
  -1.43281691e-03 -1.43281691e-03 -5.71253800e-04  0.00000000e+00
   0.00000000e+00  0.00000000e+00  0.00000000e+00  0.00000000e+00
   0.00000000e+00  0.00000000e+00  0.00000000e+00  0.00000000e+00
   0.00000000e+00  0.00000000e+00  0.00000000e+00  0.00000000e+00
   0.00000000e+00 -1.68045058e-03 -4.50920905e-03 -7.11390745e-03
  -7.11390745e-03 -4.92932170e-03 -3.33289365e-03 -8.40225289e-05
   0.00000000e+00  0.00000000e+00  0.00000000e+00  0.00000000e+00
   0.00000000e+00  0.00000000e+00  0.00000000e+00  0.00000000e+00
   0.00000000e+00  0.00000000e+00  0.00000000e+00  0.00000000e+00
   0.00000000e+00  0.00000000e+00  0.00000000e+00  0.00000000e+00
   0.00000000e+00  0.00000000e+00  0.00000000e+00  0.00000000e+00
   0.00000000e+00  0.00000000e+00  0.00000000e+00  0.00000000e+00
   0.00000000e+00  0.00000000e+00  0.00000000e+00  0.00000000e+00
   0.00000000e+00  0.00000000e+00  0.00000000e+00  0.00000000e+00
   0.00000000e+00  0.00000000e+00  0.00000000e+00  0.00000000e+00
   0.00000000e+00  0.00000000e+00  0.00000000e+00  0.00000000e+00
   0.00000000e+00  0.00000000e+00  0.00000000e+00  0.00000000e+00
   0.00000000e+00  0.00000000e+00  0.00000000e+00  0.00000000e+00
   0.00000000e+00  0.00000000e+00  0.00000000e+00  0.00000000e+00
   0.00000000e+00  0.00000000e+00  0.00000000e+00  0.00000000e+00
   0.00000000e+00  0.00000000e+00  0.00000000e+00  0.00000000e+00
   0.00000000e+00  0.00000000e+00  0.00000000e+00  0.00000000e+00
   0.00000000e+00  0.00000000e+00  0.00000000e+00  0.00000000e+00]]